digraph Tree {
node [shape=box, style="filled", color="black", fontname="helvetica"] ;
edge [fontname="helvetica"] ;
0 [label="petal length (cm) <= 2.6\ngini = 0.665\nsamples = 120\nvalue = [39, 37, 44]\nclass = virginica", fillcolor="#f7f3fd"] ;
1 [label="gini = 0.0\nsamples = 39\nvalue = [39, 0, 0]\nclass = setosa", fillcolor="#e58139"] ;
0 -> 1 [labeldistance=2.5, labelangle=45, headlabel="True"] ;
2 [label="petal width (cm) <= 1.65\ngini = 0.496\nsamples = 81\nvalue = [0, 37, 44]\nclass = virginica", fillcolor="#ebe0fb"] ;
0 -> 2 [labeldistance=2.5, labelangle=-45, headlabel="False"] ;
3 [label="petal length (cm) <= 4.95\ngini = 0.18\nsamples = 40\nvalue = [0, 36, 4]\nclass = versicolor", fillcolor="#4fe88f"] ;
2 -> 3 ;
4 [label="gini = 0.0\nsamples = 35\nvalue = [0, 35, 0]\nclass = versicolor", fillcolor="#39e581"] ;
3 -> 4 ;
5 [label="sepal length (cm) <= 6.05\ngini = 0.32\nsamples = 5\nvalue = [0, 1, 4]\nclass = virginica", fillcolor="#a06aec"] ;
3 -> 5 ;
6 [label="petal length (cm) <= 5.05\ngini = 0.5\nsamples = 2\nvalue = [0, 1, 1]\nclass = versicolor", fillcolor="#ffffff"] ;
5 -> 6 ;
7 [label="gini = 0.0\nsamples = 1\nvalue = [0, 0, 1]\nclass = virginica", fillcolor="#8139e5"] ;
6 -> 7 ;
8 [label="gini = 0.0\nsamples = 1\nvalue = [0, 1, 0]\nclass = versicolor", fillcolor="#39e581"] ;
6 -> 8 ;
9 [label="gini = 0.0\nsamples = 3\nvalue = [0, 0, 3]\nclass = virginica", fillcolor="#8139e5"] ;
5 -> 9 ;
10 [label="petal length (cm) <= 4.85\ngini = 0.048\nsamples = 41\nvalue = [0, 1, 40]\nclass = virginica", fillcolor="#843ee6"] ;
2 -> 10 ;
11 [label="sepal width (cm) <= 3.1\ngini = 0.375\nsamples = 4\nvalue = [0, 1, 3]\nclass = virginica", fillcolor="#ab7bee"] ;
10 -> 11 ;
12 [label="gini = 0.0\nsamples = 3\nvalue = [0, 0, 3]\nclass = virginica", fillcolor="#8139e5"] ;
11 -> 12 ;
13 [label="gini = 0.0\nsamples = 1\nvalue = [0, 1, 0]\nclass = versicolor", fillcolor="#39e581"] ;
11 -> 13 ;
14 [label="gini = 0.0\nsamples = 37\nvalue = [0, 0, 37]\nclass = virginica", fillcolor="#8139e5"] ;
10 -> 14 ;
}